svm_type c_svc
kernel_type rbf
gamma 103.0
nr_class 2
total_sv 215
rho -0.4043467114351471
label 1 0
probA -2.7297622923327944
probB 0.5171286522026882
nr_sv 122 93
SV
0.4603525758290423 1:0.14986038 3:0.85013962 
0.3590784368321167 1:0.46130777 3:0.53869223 
1.0 1:0.88515923 3:0.11484077 
1.0 1:0.6547048000000001 3:0.3452952 
1.0 1:0.84021248 3:0.15978752 
1.0 1:0.94928032 3:0.05071968 
1.0 1:0.82298069 2:0.0167375 3:0.16028182 
1.0 1:0.68295066 3:0.31704934 
1.0 1:0.84014187 3:0.15985813 
0.2523264293474216 1:0.34989842 3:0.65010158 
1.0 1:0.8584905999999999 3:0.1415094 
0.30300055467051484 1:0.53915355 3:0.46084645 
1.0 2:0.46374504 3:0.53625496 
1.0 0:0.60702051 2:0.06353917 3:0.32944032 
1.0 0:0.65179708 2:0.06936781 3:0.2788350999999999 
0.507256155401667 1:0.69827174 2:0.07399728 3:0.22773097 
0.2255652261067126 0:0.51897781 1:0.03856048 2:0.02632073 3:0.41614098 
0.5936323960702209 0:0.41572939 2:0.36984615 3:0.21442446 
0.3553719560037839 1:0.00275834 2:0.2383904 3:0.75885126 
0.31619629977880165 0:0.60699136 2:0.07968725 3:0.31332139 
1.0 1:0.87336397 3:0.12663603 
0.13549571674630032 2:0.80033611 3:0.19966389 
1.0 1:0.85959473 3:0.14040527 
1.0 1:0.84217321 3:0.15782679 
0.9477321142152784 1:0.8888601999999999 3:0.1111398 
1.0 1:0.87800672 3:0.12199328 
1.0 1:0.93826158 3:0.06173842 
1.0 1:0.86424769 3:0.13575231 
1.0 1:0.9055849 3:0.0944151 
1.0 1:0.95904446 3:0.04095554 
1.0 1:0.8698378000000001 3:0.1301622 
1.0 1:0.92771589 3:0.07228411 
1.0 1:0.93084233 3:0.06915767 
1.0 1:0.91314026 3:0.08685974 
1.0 1:0.92802394 3:0.07197606 
0.3809877249475856 1:0.9275690999999999 3:0.07243089999999999 
1.0 1:0.92920922 3:0.07079078 
1.0 0:0.47812586 1:0.12421928 2:0.09595752 3:0.30169734 
0.16312137782008285 0:0.42354501 1:0.06896816 2:0.04861556 3:0.45887128 
1.0 0:0.40956945 1:0.04666033 2:0.08627882 3:0.4574914 
0.8414452005516135 0:0.55687171 1:0.05514005 2:0.10715235 3:0.28083589 
1.0 0:0.62008263 2:0.06696364 3:0.31295373 
0.1585547994483865 0:0.58290626 2:0.11916509 3:0.29792864 
1.0 0:0.60474239 1:0.04240849999999999 2:0.03722125 3:0.31562786 
1.0 0:0.65594084 1:0.0313087 2:0.01580607 3:0.29694439 
1.0 0:0.52340847 1:0.03503118 2:0.0614658 3:0.38009455 
0.46282094706530374 0:0.52423045 2:0.17827957 3:0.29748998 
0.5371790529346963 0:0.50192031 2:0.12840793 3:0.36967176 
0.7902827691785762 0:0.48728763 2:0.08171476 3:0.43099761 
1.0 1:0.62944298 2:0.05906328 3:0.31149374 
0.26658320196254376 1:0.77190556 2:0.01477289 3:0.21332154 
1.0 1:0.6850002 2:0.02287684 3:0.29212296 
1.0 1:0.85074953 2:0.0401994 3:0.10905108 
0.28928767062510696 1:0.68662133 2:0.02002896 3:0.29334971 
1.0 1:0.79676173 2:0.05406739 3:0.14917089 
1.0 1:0.76650966 2:0.06761319 3:0.16587715 
0.14260296986976836 1:0.46686442 2:0.13182697 3:0.40130862 
0.8014364399222459 1:0.74064266 3:0.25935734 
0.16952817146638413 1:0.62062583 2:0.10381269 3:0.27556148 
0.13858078225789303 1:0.44454094 2:0.08950896 3:0.46595009 
0.2837717018578859 1:0.29874109 2:0.05465449999999999 3:0.64660441 
0.4748259797350036 1:0.19147842 2:0.13977729 3:0.6687443000000001 
0.23203015857258785 1:0.50386253 2:0.13631094 3:0.35982653 
1.0 1:0.77267041 2:0.06801153 3:0.15931806 
1.0 0:0.64452246 2:0.04527711 3:0.31020043 
1.0 1:0.77637527 2:0.02401863 3:0.19960611 
0.9318025107010232 0:0.26385511 2:0.192769 3:0.54337589 
0.5155507971043789 1:0.320598 2:0.19556771 3:0.48383428 
0.42529600383365 0:0.13581926 2:0.18015328 3:0.68402746 
0.19395946015486643 1:0.156022 2:0.08098003 3:0.76299797 
0.07483469403187984 1:0.54233711 2:0.10535928 3:0.35230361 
0.5251584116752434 1:0.65413266 2:0.051774 3:0.29409334 
0.34288169296728327 1:0.23544598 3:0.76455402 
0.07630563052153562 1:0.39475024 3:0.60524976 
1.0 1:0.73339746 2:0.0180814 3:0.24852114 
1.0 1:0.66271361 2:0.09901296 3:0.23827342 
0.27403415481291216 1:0.37314032 2:0.08190124 3:0.54495844 
0.556147184718998 1:0.21837356 2:0.10429899 3:0.67732745 
0.3151121310377458 0:0.08036476 1:0.05005093 2:0.08048255 3:0.78910177 
0.6760409801429799 0:0.21805459 1:0.12322792 2:0.14474878 3:0.51396872 
0.18088334433253617 0:0.14699553 1:0.07408469 2:0.09740793 3:0.68151185 
0.8420715834981294 0:0.33327114 1:0.05470983 2:0.10556938 3:0.50644965 
0.32614024634128624 0:0.24861955 1:0.00251815 2:0.03204455 3:0.71681776 
0.5396333733641275 0:0.26631499 1:0.017462 2:0.08559669 3:0.63062632 
0.1523113512176394 0:0.22442435 1:0.02282234 2:0.12010659 3:0.63264673 
1.0 0:0.56988026 1:0.0228812 2:0.05724454 3:0.34999399 
0.13188549915164977 0:0.11953131 1:0.04678953 2:0.0819698 3:0.75170936 
0.2936931210283692 0:0.35282819 1:0.0122756 2:0.05007121 3:0.584825 
1.0 0:0.58160207 2:0.03949428 3:0.37890365 
0.44385281528100196 1:0.24628755 2:0.08069755 3:0.67301491 
0.07607150480688121 1:0.59432921 2:0.04729341 3:0.35837738 
0.24500183829941402 1:0.70074663 2:0.02420681 3:0.27504656 
0.6025456207651287 1:0.51614015 2:0.08973959 3:0.39412025 
0.8766195659136871 1:0.72260695 2:0.07668075 3:0.2007123 
0.5363725407977902 2:0.87250545 3:0.12749455 
1.0 1:0.73735464 2:0.07111854 3:0.19152682 
0.08168409283523746 1:0.5804451999999999 2:0.06477772 3:0.35477707 
1.0 1:0.87702368 3:0.12297632 
0.8798015374995822 1:0.56493157 2:0.02870132 3:0.40636711 
1.0 1:0.76464827 2:0.04169247 3:0.19365926 
1.0 1:0.84449593 3:0.15550407 
0.8507447698792422 1:0.85757534 3:0.14242466 
1.0 1:0.83427419 2:0.05484618 3:0.11087963 
0.31863220939221265 1:0.6969893 3:0.3030107 
1.0 1:0.79450555 2:0.0279714 3:0.17752306 
1.0 1:0.88651468 3:0.11348532 
0.08243685138215709 2:0.79838401 3:0.20161599 
1.0 1:0.87627384 3:0.12372616 
1.0 1:0.87418095 3:0.12581905 
0.05226788578472158 1:0.33001408 3:0.66998592 
1.0 2:0.53054151 3:0.46945849 
0.8921296776088212 1:0.65442128 3:0.34557872 
0.40518883655380894 2:0.42109143 3:0.57890857 
0.35096769734010475 2:0.1814966 3:0.8185034000000001 
0.3539517941372054 2:0.66293364 3:0.33706636 
1.0 1:0.61475177 3:0.38524823 
1.0 1:0.91733904 3:0.08266096 
1.0 1:0.87901077 3:0.12098923 
0.587444985670964 2:0.56672616 3:0.43327384 
0.4572151292657776 1:0.84717721 3:0.15282279 
1.0 1:0.84117944 3:0.15882056 
0.4073965366483421 2:0.7396618 3:0.2603382 
-1.0 0:0.28203075 2:0.13928577 3:0.57868349 
-0.29455475329676456 0:0.74868031 2:0.07738827 3:0.17393142 
-1.0 0:0.6747401 1:0.03188814 2:0.02234757 3:0.27102419 
-1.0 0:0.46310273 1:0.08800082 2:0.09429729 3:0.35459917 
-1.0 1:0.80355851 2:0.01172404 3:0.18471745 
-1.0 1:0.81356273 2:0.02062104 3:0.16581624 
-1.0 1:0.9061459000000001 2:0.02604118 3:0.06781292 
-1.0 1:0.87466494 2:0.0122012 3:0.11313386 
-1.0 1:0.80918289 2:0.0247283 3:0.16608881 
-1.0 1:0.81449993 2:0.01725214 3:0.16824793 
-1.0 1:0.82953169 2:0.02603768 3:0.14443063 
-1.0 1:0.8904941999999999 2:0.02119019 3:0.08831561 
-1.0 1:0.62921907 2:0.04470056 3:0.32608037 
-1.0 1:0.81628884 2:0.03796785 3:0.14574331 
-1.0 1:0.7388873 2:0.08048212 3:0.18063058 
-1.0 1:0.65565053 2:0.00521 3:0.33913947 
-1.0 1:0.73570476 2:0.01163215 3:0.25266309 
-1.0 1:0.65485235 2:0.03820894 3:0.30693872 
-1.0 1:0.70916708 2:0.06962241 3:0.22121051 
-1.0 1:0.7186024000000001 2:0.02948471 3:0.25191289 
-1.0 1:0.90629595 3:0.09370405 
-1.0 1:0.86513902 3:0.13486098 
-1.0 1:0.93237757 2:0.01532971 3:0.05229272 
-1.0 1:0.88814137 3:0.11185863 
-1.0 0:0.31087447 1:0.10681562 2:0.09454576 3:0.48776415 
-0.443127048220227 0:0.83202694 1:0.04095964 2:0.0378788 3:0.08913462 
-0.5761822964761127 0:0.73934775 1:0.00754858 2:0.0202701 3:0.23283357 
-1.0 0:0.595826 1:0.02326679 2:0.0154804 3:0.36542681 
-0.42436437585506853 0:0.77127845 2:0.08160503 3:0.14711652 
-0.13549571674630032 0:0.69407532 1:0.04600143 2:0.0438255 3:0.21609775 
-0.8775435735593243 0:0.88373536 2:0.04240964 3:0.07385499999999999 
-1.0 0:0.47028022 2:0.09851209 3:0.43120769 
-1.0 0:0.59611928 2:0.12361984 3:0.28026089 
-1.0 1:0.84719303 2:0.02277078 3:0.13003619 
-1.0 1:0.90688859 2:0.01024898 3:0.08286243 
-1.0 1:0.9118712 2:0.00916697 3:0.07896183 
-1.0 1:0.85258767 2:0.02214592 3:0.12526641 
-1.0 1:0.87122174 2:0.01279794 3:0.11598032 
-1.0 1:0.66424492 2:0.1284459 3:0.20730918 
-1.0 1:0.81455122 2:0.02914323 3:0.15630555 
-1.0 1:0.91285631 2:0.02776864 3:0.05937505 
-1.0 1:0.91910966 2:0.00890995 3:0.07198039 
-1.0 1:0.68245706 2:0.03217003 3:0.28537292 
-1.0 1:0.53511706 2:0.06849039999999999 3:0.39639254 
-1.0 1:0.23351982 2:0.09519731 3:0.67128288 
-1.0 1:0.8819891 3:0.1180109 
-1.0 1:0.9252338 3:0.07476619999999999 
-1.0 1:0.59595481 3:0.40404519 
-1.0 1:0.8593014999999999 3:0.1406985 
-1.0 1:0.65474935 3:0.34525065 
-1.0 0:0.43093769 1:0.06536633 2:0.11216245 3:0.39153353 
-1.0 0:0.55131258 1:0.03438685 2:0.07641051 3:0.33789006 
-1.0 0:0.58859635 1:0.00787241 2:0.05606733 3:0.34746391 
-1.0 0:0.62543021 1:0.00312113 2:0.07099663 3:0.30045203 
-1.0 0:0.62189486 1:0.04201777 2:0.06042934 3:0.27565804 
-1.0 0:0.56701344 1:0.03132037 2:0.03790889 3:0.36375729 
-1.0 0:0.64033087 1:0.02709878 2:0.00605482 3:0.32651554 
-1.0 0:0.6268224 1:0.01634059 2:0.03633993 3:0.32049708 
-0.39936946563890047 0:0.69882294 1:0.02943178 2:0.03554359999999999 3:0.23620168 
-0.3746000829043239 0:0.83905009 2:0.01668234 3:0.14426757 
-1.0 1:0.75442402 2:0.03722401 3:0.20835197 
-1.0 1:0.81907264 2:0.02949823 3:0.15142913 
-1.0 1:0.87878751 2:0.01809513 3:0.10311735 
-1.0 1:0.8876696 2:0.02359724 3:0.08873316 
-1.0 1:0.85071146 2:0.00944968 3:0.13983886 
-1.0 1:0.86118622 2:0.0087246 3:0.13008918 
-1.0 1:0.83879019 2:0.02614493 3:0.13506489 
-1.0 1:0.85675952 2:0.02168425 3:0.12155623 
-1.0 1:0.86776251 2:0.02172861 3:0.11050888 
-1.0 1:0.86219049 2:0.01445605 3:0.12335346 
-1.0 1:0.75002501 2:0.06446677 3:0.18550821 
-1.0 1:0.69903069 3:0.30096931 
-1.0 1:0.83228267 2:0.02066699 3:0.14705034 
-1.0 1:0.27998561 
-1.0 2:0.47228218 3:0.47228218 
-0.4786513832074092 1:0.51907134 
-1.0 2:0.7456805999999999 3:0.7456805999999999 
-1.0 2:0.57014366 3:0.57014366 
-1.0 2:0.26391662 3:0.26391662 
-0.8568631302233305 2:0.8433286 3:0.8433286 
-1.0 1:0.9337131999999999 
-0.651464195979466 1:0.58590318 
-0.2255652261067126 1:0.34216358 
-1.0 1:0.93998242 
-0.9348283983665625 1:0.42529676 
-0.565810324743721 1:0.92813957 
-0.34853580402053397 1:0.62596089 
-0.23203015857258785 2:0.81091965 3:0.81091965 
-0.7661935722719312 1:0.72341898 2:0.05527552 3:0.05527552 
-0.619992606484253 1:0.73489072 
-1.0 2:0.94054885 3:0.94054885 
-1.0 2:0.50035026 3:0.50035026 
-0.2579427570423094 2:0.9377960999999999 3:0.9377960999999999 
